{
    "output_dim": 1, 
    "name_list": [
        "layer-0", 
        "layer-1", 
        "output"
    ], 
    "input_dim": 2, 
    "output": {
        "output_dim": 1, 
        "weight": [
            [
                0.2561189830303192
            ], 
            [
                -0.6090182065963745
            ], 
            [
                -0.04586928337812424
            ], 
            [
                0.7609036564826965
            ], 
            [
                -0.6476346254348755
            ], 
            [
                -0.5268793702125549
            ], 
            [
                0.15201693773269653
            ], 
            [
                -0.3893375098705292
            ], 
            [
                -0.5357828736305237
            ], 
            [
                0.01551011111587286
            ]
        ], 
        "bias": [
            0.02680826745927334
        ], 
        "activation": "linear", 
        "input_dim": 10
    }, 
    "layer-1": {
        "output_dim": 10, 
        "weight": [
            [
                -0.11014807969331741, 
                -0.3653569221496582, 
                0.42679744958877563, 
                -0.4123566448688507, 
                0.005610290449112654, 
                0.3334195911884308, 
                -0.5156249403953552, 
                -0.16946738958358765, 
                -0.5147023797035217, 
                0.19619478285312653
            ], 
            [
                -0.14224554598331451, 
                0.2879743278026581, 
                -0.46452173590660095, 
                -0.06738970428705215, 
                -0.35198774933815, 
                0.07740772515535355, 
                -0.631673276424408, 
                0.14498929679393768, 
                -0.16927874088287354, 
                -0.12024873495101929
            ], 
            [
                -0.3815178871154785, 
                -0.3493604362010956, 
                -0.29455721378326416, 
                -0.23381172120571136, 
                0.5073235034942627, 
                0.46542173624038696, 
                0.12408789992332458, 
                0.33656248450279236, 
                0.27032190561294556, 
                0.3154042959213257
            ], 
            [
                -0.04689206928014755, 
                -0.3135988712310791, 
                -0.16877810657024384, 
                -0.43555712699890137, 
                -0.023875756189227104, 
                0.2497842162847519, 
                -0.34113186597824097, 
                -0.04840310662984848, 
                -0.45054250955581665, 
                0.19651420414447784
            ], 
            [
                0.42735669016838074, 
                0.437081515789032, 
                -0.004359715152531862, 
                0.43680763244628906, 
                -0.15609990060329437, 
                -0.4890573024749756, 
                0.4898858964443207, 
                -0.1373579502105713, 
                -0.35042497515678406, 
                0.30503854155540466
            ], 
            [
                -0.4261803925037384, 
                -0.10255035012960434, 
                -0.41462674736976624, 
                0.3593440651893616, 
                0.3266885578632355, 
                -0.22568035125732422, 
                -0.3937762975692749, 
                0.34956496953964233, 
                0.14361357688903809, 
                -0.19933167099952698
            ], 
            [
                0.11360204219818115, 
                -0.48740053176879883, 
                0.5125809907913208, 
                -0.29881909489631653, 
                0.12790478765964508, 
                -0.25356122851371765, 
                0.19403082132339478, 
                -0.12556982040405273, 
                -0.24703289568424225, 
                -0.10167329013347626
            ], 
            [
                0.21994514763355255, 
                0.023422539234161377, 
                0.5053516626358032, 
                -0.5042305588722229, 
                0.2898959517478943, 
                -0.333833247423172, 
                0.22051401436328888, 
                -0.10598033666610718, 
                0.36795395612716675, 
                0.4924245774745941
            ], 
            [
                -0.49221858382225037, 
                -0.44307366013526917, 
                0.19147156178951263, 
                0.37621527910232544, 
                0.19897353649139404, 
                -0.19808489084243774, 
                -0.1546626091003418, 
                -0.30172672867774963, 
                0.06885373592376709, 
                0.3883439898490906
            ], 
            [
                -0.3406345248222351, 
                -0.5300175547599792, 
                -0.307245671749115, 
                -0.08532769232988358, 
                0.0170474573969841, 
                -0.45115846395492554, 
                -0.2183348685503006, 
                -0.27667927742004395, 
                0.4908936321735382, 
                -0.26054126024246216
            ]
        ], 
        "bias": [
            0.025718366727232933, 
            -0.005161185748875141, 
            -0.010830588638782501, 
            0.03337591513991356, 
            -0.006714472081512213, 
            0.016621140763163567, 
            0.05236584693193436, 
            0.01820364221930504, 
            -0.013874318450689316, 
            0.018843548372387886
        ], 
        "activation": "relu", 
        "input_dim": 10
    }, 
    "layer-0": {
        "output_dim": 10, 
        "weight": [
            [
                0.1306157410144806, 
                -0.6345694661140442, 
                0.010090235620737076, 
                0.200367733836174, 
                0.1938646137714386, 
                -0.03191639855504036, 
                -0.45611369609832764, 
                0.7021333575248718, 
                0.19863703846931458, 
                -0.1746739149093628
            ], 
            [
                0.04838716611266136, 
                -0.2122158706188202, 
                -0.7333927750587463, 
                -0.5247316956520081, 
                0.08406169712543488, 
                -0.48471373319625854, 
                -0.26908767223358154, 
                0.5687593817710876, 
                0.5894305109977722, 
                0.2754632234573364
            ]
        ], 
        "bias": [
            -0.007220642641186714, 
            0.005564388353377581, 
            0.048289477825164795, 
            0.04033096879720688, 
            -0.0078004528768360615, 
            0.03619363531470299, 
            -0.010704855434596539, 
            -0.017405206337571144, 
            0.032585520297288895, 
            -0.015331808477640152
        ], 
        "activation": "relu", 
        "input_dim": 2
    }
}